digraph Tree {
node [shape=box] ;
0 [label="Age <= 0.5\ngini = 0.472\nsamples = 889\nvalue = [549, 340]"] ;
1 [label="Pclass <= 2.5\ngini = 0.384\nsamples = 312\nvalue = [81, 231]"] ;
0 -> 1 [labeldistance=2.5, labelangle=45, headlabel="True"] ;
2 [label="Sex <= 2.5\ngini = 0.101\nsamples = 168\nvalue = [9, 159]"] ;
1 -> 2 ;
3 [label="Pclass <= 1.5\ngini = 0.173\nsamples = 73\nvalue = [7, 66]"] ;
2 -> 3 ;
4 [label="gini = 0.0\nsamples = 10\nvalue = [0, 10]"] ;
3 -> 4 ;
5 [label="Pclass <= 1.5\ngini = 0.198\nsamples = 63\nvalue = [7, 56]"] ;
3 -> 5 ;
6 [label="Pclass <= 2.5\ngini = 0.245\nsamples = 7\nvalue = [1, 6]"] ;
5 -> 6 ;
7 [label="gini = 0.0\nsamples = 2\nvalue = [0, 2]"] ;
6 -> 7 ;
8 [label="gini = 0.32\nsamples = 5\nvalue = [1, 4]"] ;
6 -> 8 ;
9 [label="Sex <= 0.5\ngini = 0.191\nsamples = 56\nvalue = [6, 50]"] ;
5 -> 9 ;
10 [label="Pclass <= 2.5\ngini = 0.245\nsamples = 7\nvalue = [1, 6]"] ;
9 -> 10 ;
11 [label="gini = 0.0\nsamples = 3\nvalue = [0, 3]"] ;
10 -> 11 ;
12 [label="gini = 0.375\nsamples = 4\nvalue = [1, 3]"] ;
10 -> 12 ;
13 [label="Pclass <= 2.5\ngini = 0.183\nsamples = 49\nvalue = [5, 44]"] ;
9 -> 13 ;
14 [label="Sex <= 1.5\ngini = 0.211\nsamples = 25\nvalue = [3, 22]"] ;
13 -> 14 ;
15 [label="gini = 0.18\nsamples = 10\nvalue = [1, 9]"] ;
14 -> 15 ;
16 [label="gini = 0.231\nsamples = 15\nvalue = [2, 13]"] ;
14 -> 16 ;
17 [label="Sex <= 1.5\ngini = 0.153\nsamples = 24\nvalue = [2, 22]"] ;
13 -> 17 ;
18 [label="gini = 0.153\nsamples = 12\nvalue = [1, 11]"] ;
17 -> 18 ;
19 [label="gini = 0.153\nsamples = 12\nvalue = [1, 11]"] ;
17 -> 19 ;
20 [label="Pclass <= 0.5\ngini = 0.041\nsamples = 95\nvalue = [2, 93]"] ;
2 -> 20 ;
21 [label="Sex <= 3.5\ngini = 0.375\nsamples = 4\nvalue = [1, 3]"] ;
20 -> 21 ;
22 [label="gini = 0.0\nsamples = 3\nvalue = [0, 3]"] ;
21 -> 22 ;
23 [label="gini = 0.0\nsamples = 1\nvalue = [1, 0]"] ;
21 -> 23 ;
24 [label="Pclass <= 2.5\ngini = 0.022\nsamples = 91\nvalue = [1, 90]"] ;
20 -> 24 ;
25 [label="Pclass <= 1.5\ngini = 0.056\nsamples = 35\nvalue = [1, 34]"] ;
24 -> 25 ;
26 [label="gini = 0.0\nsamples = 11\nvalue = [0, 11]"] ;
25 -> 26 ;
27 [label="Sex <= 3.5\ngini = 0.08\nsamples = 24\nvalue = [1, 23]"] ;
25 -> 27 ;
28 [label="gini = 0.0\nsamples = 6\nvalue = [0, 6]"] ;
27 -> 28 ;
29 [label="Pclass <= 1.5\ngini = 0.105\nsamples = 18\nvalue = [1, 17]"] ;
27 -> 29 ;
30 [label="gini = 0.111\nsamples = 17\nvalue = [1, 16]"] ;
29 -> 30 ;
31 [label="gini = 0.0\nsamples = 1\nvalue = [0, 1]"] ;
29 -> 31 ;
32 [label="gini = 0.0\nsamples = 56\nvalue = [0, 56]"] ;
24 -> 32 ;
33 [label="Sex <= 2.5\ngini = 0.5\nsamples = 144\nvalue = [72, 72]"] ;
1 -> 33 ;
34 [label="Sex <= 1.5\ngini = 0.496\nsamples = 128\nvalue = [58, 70]"] ;
33 -> 34 ;
35 [label="Pclass <= 0.5\ngini = 0.489\nsamples = 103\nvalue = [44, 59]"] ;
34 -> 35 ;
36 [label="Sex <= 0.5\ngini = 0.375\nsamples = 8\nvalue = [2, 6]"] ;
35 -> 36 ;
37 [label="gini = 0.5\nsamples = 2\nvalue = [1, 1]"] ;
36 -> 37 ;
38 [label="gini = 0.278\nsamples = 6\nvalue = [1, 5]"] ;
36 -> 38 ;
39 [label="Sex <= 0.5\ngini = 0.493\nsamples = 95\nvalue = [42, 53]"] ;
35 -> 39 ;
40 [label="Pclass <= 1.5\ngini = 0.484\nsamples = 68\nvalue = [28, 40]"] ;
39 -> 40 ;
41 [label="gini = 0.355\nsamples = 13\nvalue = [3, 10]"] ;
40 -> 41 ;
42 [label="Pclass <= 3.5\ngini = 0.496\nsamples = 55\nvalue = [25, 30]"] ;
40 -> 42 ;
43 [label="gini = 0.497\nsamples = 54\nvalue = [25, 29]"] ;
42 -> 43 ;
44 [label="gini = 0.0\nsamples = 1\nvalue = [0, 1]"] ;
42 -> 44 ;
45 [label="Pclass <= 1.5\ngini = 0.499\nsamples = 27\nvalue = [14, 13]"] ;
39 -> 45 ;
46 [label="gini = 0.278\nsamples = 6\nvalue = [5, 1]"] ;
45 -> 46 ;
47 [label="Pclass <= 2.5\ngini = 0.49\nsamples = 21\nvalue = [9, 12]"] ;
45 -> 47 ;
48 [label="gini = 0.408\nsamples = 7\nvalue = [2, 5]"] ;
47 -> 48 ;
49 [label="gini = 0.5\nsamples = 14\nvalue = [7, 7]"] ;
47 -> 49 ;
50 [label="Pclass <= 2.5\ngini = 0.493\nsamples = 25\nvalue = [14, 11]"] ;
34 -> 50 ;
51 [label="Pclass <= 1.0\ngini = 0.486\nsamples = 12\nvalue = [7, 5]"] ;
50 -> 51 ;
52 [label="gini = 0.494\nsamples = 9\nvalue = [5, 4]"] ;
51 -> 52 ;
53 [label="gini = 0.444\nsamples = 3\nvalue = [2, 1]"] ;
51 -> 53 ;
54 [label="gini = 0.497\nsamples = 13\nvalue = [7, 6]"] ;
50 -> 54 ;
55 [label="Sex <= 3.5\ngini = 0.219\nsamples = 16\nvalue = [14, 2]"] ;
33 -> 55 ;
56 [label="Pclass <= 2.5\ngini = 0.26\nsamples = 13\nvalue = [11, 2]"] ;
55 -> 56 ;
57 [label="Pclass <= 0.5\ngini = 0.219\nsamples = 8\nvalue = [7, 1]"] ;
56 -> 57 ;
58 [label="gini = 0.278\nsamples = 6\nvalue = [5, 1]"] ;
57 -> 58 ;
59 [label="gini = 0.0\nsamples = 2\nvalue = [2, 0]"] ;
57 -> 59 ;
60 [label="gini = 0.32\nsamples = 5\nvalue = [4, 1]"] ;
56 -> 60 ;
61 [label="gini = 0.0\nsamples = 3\nvalue = [3, 0]"] ;
55 -> 61 ;
62 [label="Pclass <= 0.5\ngini = 0.306\nsamples = 577\nvalue = [468, 109]"] ;
0 -> 62 [labeldistance=2.5, labelangle=-45, headlabel="False"] ;
63 [label="Pclass <= 2.5\ngini = 0.491\nsamples = 37\nvalue = [16, 21]"] ;
62 -> 63 ;
64 [label="gini = 0.0\nsamples = 12\nvalue = [0, 12]"] ;
63 -> 64 ;
65 [label="Sex <= 1.5\ngini = 0.461\nsamples = 25\nvalue = [16, 9]"] ;
63 -> 65 ;
66 [label="gini = 0.0\nsamples = 6\nvalue = [0, 6]"] ;
65 -> 66 ;
67 [label="Sex <= 2.5\ngini = 0.266\nsamples = 19\nvalue = [16, 3]"] ;
65 -> 67 ;
68 [label="gini = 0.32\nsamples = 10\nvalue = [8, 2]"] ;
67 -> 68 ;
69 [label="gini = 0.198\nsamples = 9\nvalue = [8, 1]"] ;
67 -> 69 ;
70 [label="Pclass <= 1.5\ngini = 0.273\nsamples = 540\nvalue = [452, 88]"] ;
62 -> 70 ;
71 [label="Pclass <= 3.5\ngini = 0.457\nsamples = 119\nvalue = [77, 42]"] ;
70 -> 71 ;
72 [label="Sex <= 1.0\ngini = 0.473\nsamples = 107\nvalue = [66, 41]"] ;
71 -> 72 ;
73 [label="gini = 0.0\nsamples = 6\nvalue = [6, 0]"] ;
72 -> 73 ;
74 [label="Sex <= 2.5\ngini = 0.482\nsamples = 101\nvalue = [60, 41]"] ;
72 -> 74 ;
75 [label="Pclass <= 2.5\ngini = 0.499\nsamples = 29\nvalue = [15, 14]"] ;
74 -> 75 ;
76 [label="gini = 0.5\nsamples = 4\nvalue = [2, 2]"] ;
75 -> 76 ;
77 [label="gini = 0.499\nsamples = 25\nvalue = [13, 12]"] ;
75 -> 77 ;
78 [label="Sex <= 3.5\ngini = 0.469\nsamples = 72\nvalue = [45, 27]"] ;
74 -> 78 ;
79 [label="Pclass <= 2.5\ngini = 0.482\nsamples = 37\nvalue = [22, 15]"] ;
78 -> 79 ;
80 [label="gini = 0.444\nsamples = 6\nvalue = [2, 4]"] ;
79 -> 80 ;
81 [label="gini = 0.458\nsamples = 31\nvalue = [20, 11]"] ;
79 -> 81 ;
82 [label="Pclass <= 1.5\ngini = 0.451\nsamples = 35\nvalue = [23, 12]"] ;
78 -> 82 ;
83 [label="gini = 0.5\nsamples = 2\nvalue = [1, 1]"] ;
82 -> 83 ;
84 [label="gini = 0.444\nsamples = 33\nvalue = [22, 11]"] ;
82 -> 84 ;
85 [label="Sex <= 2.5\ngini = 0.153\nsamples = 12\nvalue = [11, 1]"] ;
71 -> 85 ;
86 [label="gini = 0.32\nsamples = 5\nvalue = [4, 1]"] ;
85 -> 86 ;
87 [label="gini = 0.0\nsamples = 7\nvalue = [7, 0]"] ;
85 -> 87 ;
88 [label="Sex <= 2.5\ngini = 0.195\nsamples = 421\nvalue = [375, 46]"] ;
70 -> 88 ;
89 [label="Sex <= 1.5\ngini = 0.186\nsamples = 394\nvalue = [353, 41]"] ;
88 -> 89 ;
90 [label="Pclass <= 2.5\ngini = 0.192\nsamples = 354\nvalue = [316, 38]"] ;
89 -> 90 ;
91 [label="Pclass <= 2.5\ngini = 0.203\nsamples = 166\nvalue = [147, 19]"] ;
90 -> 91 ;
92 [label="Sex <= 0.5\ngini = 0.064\nsamples = 30\nvalue = [29, 1]"] ;
91 -> 92 ;
93 [label="gini = 0.142\nsamples = 13\nvalue = [12, 1]"] ;
92 -> 93 ;
94 [label="gini = 0.0\nsamples = 17\nvalue = [17, 0]"] ;
92 -> 94 ;
95 [label="Pclass <= 1.5\ngini = 0.23\nsamples = 136\nvalue = [118, 18]"] ;
91 -> 95 ;
96 [label="gini = 0.18\nsamples = 20\nvalue = [18, 2]"] ;
95 -> 96 ;
97 [label="gini = 0.238\nsamples = 116\nvalue = [100, 16]"] ;
95 -> 97 ;
98 [label="Sex <= 0.5\ngini = 0.182\nsamples = 188\nvalue = [169, 19]"] ;
90 -> 98 ;
99 [label="Pclass <= 3.5\ngini = 0.149\nsamples = 148\nvalue = [136, 12]"] ;
98 -> 99 ;
100 [label="gini = 0.144\nsamples = 141\nvalue = [130, 11]"] ;
99 -> 100 ;
101 [label="gini = 0.245\nsamples = 7\nvalue = [6, 1]"] ;
99 -> 101 ;
102 [label="Pclass <= 2.5\ngini = 0.289\nsamples = 40\nvalue = [33, 7]"] ;
98 -> 102 ;
103 [label="gini = 0.34\nsamples = 23\nvalue = [18, 5]"] ;
102 -> 103 ;
104 [label="gini = 0.208\nsamples = 17\nvalue = [15, 2]"] ;
102 -> 104 ;
105 [label="Pclass <= 2.5\ngini = 0.139\nsamples = 40\nvalue = [37, 3]"] ;
89 -> 105 ;
106 [label="Pclass <= 2.5\ngini = 0.087\nsamples = 22\nvalue = [21, 1]"] ;
105 -> 106 ;
107 [label="gini = 0.0\nsamples = 6\nvalue = [6, 0]"] ;
106 -> 107 ;
108 [label="gini = 0.117\nsamples = 16\nvalue = [15, 1]"] ;
106 -> 108 ;
109 [label="Pclass <= 1.5\ngini = 0.198\nsamples = 18\nvalue = [16, 2]"] ;
105 -> 109 ;
110 [label="gini = 0.0\nsamples = 2\nvalue = [2, 0]"] ;
109 -> 110 ;
111 [label="Pclass <= 2.5\ngini = 0.219\nsamples = 16\nvalue = [14, 2]"] ;
109 -> 111 ;
112 [label="gini = 0.375\nsamples = 4\nvalue = [3, 1]"] ;
111 -> 112 ;
113 [label="gini = 0.153\nsamples = 12\nvalue = [11, 1]"] ;
111 -> 113 ;
114 [label="Pclass <= 2.5\ngini = 0.302\nsamples = 27\nvalue = [22, 5]"] ;
88 -> 114 ;
115 [label="gini = 0.0\nsamples = 11\nvalue = [11, 0]"] ;
114 -> 115 ;
116 [label="Pclass <= 1.5\ngini = 0.43\nsamples = 16\nvalue = [11, 5]"] ;
114 -> 116 ;
117 [label="gini = 0.0\nsamples = 4\nvalue = [4, 0]"] ;
116 -> 117 ;
118 [label="Sex <= 3.5\ngini = 0.486\nsamples = 12\nvalue = [7, 5]"] ;
116 -> 118 ;
119 [label="Pclass <= 2.5\ngini = 0.469\nsamples = 8\nvalue = [3, 5]"] ;
118 -> 119 ;
120 [label="gini = 0.5\nsamples = 2\nvalue = [1, 1]"] ;
119 -> 120 ;
121 [label="gini = 0.444\nsamples = 6\nvalue = [2, 4]"] ;
119 -> 121 ;
122 [label="gini = 0.0\nsamples = 4\nvalue = [4, 0]"] ;
118 -> 122 ;
}