|--- feature_0 <= 113.50
|   |--- feature_1 <= 2.95
|   |   |--- feature_0 <= 106.50
|   |   |   |--- class: 0
|   |   |--- feature_0 >  106.50
|   |   |   |--- feature_2 <= 1.50
|   |   |   |   |--- feature_1 <= 0.35
|   |   |   |   |   |--- feature_1 <= 0.25
|   |   |   |   |   |   |--- feature_0 <= 112.50
|   |   |   |   |   |   |   |--- class: 0
|   |   |   |   |   |   |--- feature_0 >  112.50
|   |   |   |   |   |   |   |--- class: 0
|   |   |   |   |   |--- feature_1 >  0.25
|   |   |   |   |   |   |--- feature_0 <= 111.50
|   |   |   |   |   |   |   |--- class: 1
|   |   |   |   |   |   |--- feature_0 >  111.50
|   |   |   |   |   |   |   |--- class: 0
|   |   |   |   |--- feature_1 >  0.35
|   |   |   |   |   |--- feature_0 <= 109.50
|   |   |   |   |   |   |--- feature_1 <= 1.75
|   |   |   |   |   |   |   |--- class: 0
|   |   |   |   |   |   |--- feature_1 >  1.75
|   |   |   |   |   |   |   |--- feature_1 <= 1.90
|   |   |   |   |   |   |   |   |--- class: 1
|   |   |   |   |   |   |   |--- feature_1 >  1.90
|   |   |   |   |   |   |   |   |--- class: 0
|   |   |   |   |   |--- feature_0 >  109.50
|   |   |   |   |   |   |--- class: 0
|   |   |   |--- feature_2 >  1.50
|   |   |   |   |--- feature_1 <= 1.65
|   |   |   |   |   |--- feature_1 <= 0.30
|   |   |   |   |   |   |--- class: 0
|   |   |   |   |   |--- feature_1 >  0.30
|   |   |   |   |   |   |--- feature_1 <= 0.70
|   |   |   |   |   |   |   |--- class: 1
|   |   |   |   |   |   |--- feature_1 >  0.70
|   |   |   |   |   |   |   |--- feature_1 <= 1.55
|   |   |   |   |   |   |   |   |--- class: 0
|   |   |   |   |   |   |   |--- feature_1 >  1.55
|   |   |   |   |   |   |   |   |--- class: 1
|   |   |   |   |--- feature_1 >  1.65
|   |   |   |   |   |--- feature_1 <= 2.45
|   |   |   |   |   |   |--- feature_0 <= 108.50
|   |   |   |   |   |   |   |--- feature_1 <= 1.85
|   |   |   |   |   |   |   |   |--- class: 0
|   |   |   |   |   |   |   |--- feature_1 >  1.85
|   |   |   |   |   |   |   |   |--- class: 0
|   |   |   |   |   |   |--- feature_0 >  108.50
|   |   |   |   |   |   |   |--- feature_1 <= 1.75
|   |   |   |   |   |   |   |   |--- class: 0
|   |   |   |   |   |   |   |--- feature_1 >  1.75
|   |   |   |   |   |   |   |   |--- class: 0
|   |   |   |   |   |--- feature_1 >  2.45
|   |   |   |   |   |   |--- feature_0 <= 109.00
|   |   |   |   |   |   |   |--- class: 1
|   |   |   |   |   |   |--- feature_0 >  109.00
|   |   |   |   |   |   |   |--- feature_1 <= 2.60
|   |   |   |   |   |   |   |   |--- class: 1
|   |   |   |   |   |   |   |--- feature_1 >  2.60
|   |   |   |   |   |   |   |   |--- class: 0
|   |--- feature_1 >  2.95
|   |   |--- feature_0 <= 82.50
|   |   |   |--- feature_1 <= 3.55
|   |   |   |   |--- feature_1 <= 3.45
|   |   |   |   |   |--- feature_1 <= 3.25
|   |   |   |   |   |   |--- feature_0 <= 70.00
|   |   |   |   |   |   |   |--- feature_1 <= 3.15
|   |   |   |   |   |   |   |   |--- class: 0
|   |   |   |   |   |   |   |--- feature_1 >  3.15
|   |   |   |   |   |   |   |   |--- class: 0
|   |   |   |   |   |   |--- feature_0 >  70.00
|   |   |   |   |   |   |   |--- class: 0
|   |   |   |   |   |--- feature_1 >  3.25
|   |   |   |   |   |   |--- feature_1 <= 3.35
|   |   |   |   |   |   |   |--- class: 1
|   |   |   |   |   |   |--- feature_1 >  3.35
|   |   |   |   |   |   |   |--- feature_2 <= 1.50
|   |   |   |   |   |   |   |   |--- class: 0
|   |   |   |   |   |   |   |--- feature_2 >  1.50
|   |   |   |   |   |   |   |   |--- class: 0
|   |   |   |   |--- feature_1 >  3.45
|   |   |   |   |   |--- class: 1
|   |   |   |--- feature_1 >  3.55
|   |   |   |   |--- feature_0 <= 81.50
|   |   |   |   |   |--- class: 0
|   |   |   |   |--- feature_0 >  81.50
|   |   |   |   |   |--- feature_1 <= 3.75
|   |   |   |   |   |   |--- feature_1 <= 3.65
|   |   |   |   |   |   |   |--- class: 0
|   |   |   |   |   |   |--- feature_1 >  3.65
|   |   |   |   |   |   |   |--- feature_2 <= 2.50
|   |   |   |   |   |   |   |   |--- class: 1
|   |   |   |   |   |   |   |--- feature_2 >  2.50
|   |   |   |   |   |   |   |   |--- class: 0
|   |   |   |   |   |--- feature_1 >  3.75
|   |   |   |   |   |   |--- class: 0
|   |   |--- feature_0 >  82.50
|   |   |   |--- feature_2 <= 1.50
|   |   |   |   |--- feature_1 <= 4.25
|   |   |   |   |   |--- feature_1 <= 4.05
|   |   |   |   |   |   |--- feature_0 <= 83.50
|   |   |   |   |   |   |   |--- feature_1 <= 3.25
|   |   |   |   |   |   |   |   |--- class: 1
|   |   |   |   |   |   |   |--- feature_1 >  3.25
|   |   |   |   |   |   |   |   |--- class: 1
|   |   |   |   |   |   |--- feature_0 >  83.50
|   |   |   |   |   |   |   |--- feature_1 <= 3.05
|   |   |   |   |   |   |   |   |--- class: 1
|   |   |   |   |   |   |   |--- feature_1 >  3.05
|   |   |   |   |   |   |   |   |--- class: 0
|   |   |   |   |   |--- feature_1 >  4.05
|   |   |   |   |   |   |--- class: 1
|   |   |   |   |--- feature_1 >  4.25
|   |   |   |   |   |--- feature_1 <= 4.65
|   |   |   |   |   |   |--- feature_0 <= 100.00
|   |   |   |   |   |   |   |--- feature_0 <= 96.50
|   |   |   |   |   |   |   |   |--- class: 0
|   |   |   |   |   |   |   |--- feature_0 >  96.50
|   |   |   |   |   |   |   |   |--- class: 1
|   |   |   |   |   |   |--- feature_0 >  100.00
|   |   |   |   |   |   |   |--- class: 0
|   |   |   |   |   |--- feature_1 >  4.65
|   |   |   |   |   |   |--- class: 0
|   |   |   |--- feature_2 >  1.50
|   |   |   |   |--- feature_0 <= 92.50
|   |   |   |   |   |--- feature_2 <= 2.50
|   |   |   |   |   |   |--- feature_0 <= 87.00
|   |   |   |   |   |   |   |--- feature_1 <= 3.75
|   |   |   |   |   |   |   |   |--- class: 0
|   |   |   |   |   |   |   |--- feature_1 >  3.75
|   |   |   |   |   |   |   |   |--- class: 1
|   |   |   |   |   |   |--- feature_0 >  87.00
|   |   |   |   |   |   |   |--- class: 1
|   |   |   |   |   |--- feature_2 >  2.50
|   |   |   |   |   |   |--- feature_1 <= 3.65
|   |   |   |   |   |   |   |--- feature_1 <= 3.20
|   |   |   |   |   |   |   |   |--- class: 0
|   |   |   |   |   |   |   |--- feature_1 >  3.20
|   |   |   |   |   |   |   |   |--- class: 1
|   |   |   |   |   |   |--- feature_1 >  3.65
|   |   |   |   |   |   |   |--- class: 0
|   |   |   |   |--- feature_0 >  92.50
|   |   |   |   |   |--- feature_0 <= 109.00
|   |   |   |   |   |   |--- feature_1 <= 3.95
|   |   |   |   |   |   |   |--- feature_0 <= 106.50
|   |   |   |   |   |   |   |   |--- class: 1
|   |   |   |   |   |   |   |--- feature_0 >  106.50
|   |   |   |   |   |   |   |   |--- class: 0
|   |   |   |   |   |   |--- feature_1 >  3.95
|   |   |   |   |   |   |   |--- feature_2 <= 2.50
|   |   |   |   |   |   |   |   |--- class: 1
|   |   |   |   |   |   |   |--- feature_2 >  2.50
|   |   |   |   |   |   |   |   |--- class: 0
|   |   |   |   |   |--- feature_0 >  109.00
|   |   |   |   |   |   |--- class: 1
|--- feature_0 >  113.50
|   |--- feature_2 <= 1.50
|   |   |--- feature_1 <= 6.63
|   |   |   |--- feature_1 <= 6.55
|   |   |   |   |--- feature_1 <= 4.05
|   |   |   |   |   |--- feature_0 <= 159.50
|   |   |   |   |   |   |--- feature_0 <= 146.50
|   |   |   |   |   |   |   |--- feature_1 <= 2.65
|   |   |   |   |   |   |   |   |--- class: 0
|   |   |   |   |   |   |   |--- feature_1 >  2.65
|   |   |   |   |   |   |   |   |--- class: 0
|   |   |   |   |   |   |--- feature_0 >  146.50
|   |   |   |   |   |   |   |--- class: 0
|   |   |   |   |   |--- feature_0 >  159.50
|   |   |   |   |   |   |--- feature_1 <= 3.35
|   |   |   |   |   |   |   |--- feature_1 <= 1.55
|   |   |   |   |   |   |   |   |--- class: 0
|   |   |   |   |   |   |   |--- feature_1 >  1.55
|   |   |   |   |   |   |   |   |--- class: 0
|   |   |   |   |   |   |--- feature_1 >  3.35
|   |   |   |   |   |   |   |--- class: 1
|   |   |   |   |--- feature_1 >  4.05
|   |   |   |   |   |--- feature_0 <= 179.50
|   |   |   |   |   |   |--- feature_0 <= 134.50
|   |   |   |   |   |   |   |--- feature_1 <= 6.40
|   |   |   |   |   |   |   |   |--- class: 0
|   |   |   |   |   |   |   |--- feature_1 >  6.40
|   |   |   |   |   |   |   |   |--- class: 1
|   |   |   |   |   |   |--- feature_0 >  134.50
|   |   |   |   |   |   |   |--- feature_0 <= 136.50
|   |   |   |   |   |   |   |   |--- class: 1
|   |   |   |   |   |   |   |--- feature_0 >  136.50
|   |   |   |   |   |   |   |   |--- class: 0
|   |   |   |   |   |--- feature_0 >  179.50
|   |   |   |   |   |   |--- class: 0
|   |   |   |--- feature_1 >  6.55
|   |   |   |   |--- class: 1
|   |   |--- feature_1 >  6.63
|   |   |   |--- feature_0 <= 176.50
|   |   |   |   |--- feature_1 <= 6.95
|   |   |   |   |   |--- feature_1 <= 6.85
|   |   |   |   |   |   |--- class: 0
|   |   |   |   |   |--- feature_1 >  6.85
|   |   |   |   |   |   |--- feature_0 <= 143.00
|   |   |   |   |   |   |   |--- class: 0
|   |   |   |   |   |   |--- feature_0 >  143.00
|   |   |   |   |   |   |   |--- feature_0 <= 147.50
|   |   |   |   |   |   |   |   |--- class: 0
|   |   |   |   |   |   |   |--- feature_0 >  147.50
|   |   |   |   |   |   |   |   |--- class: 0
|   |   |   |   |--- feature_1 >  6.95
|   |   |   |   |   |--- class: 0
|   |   |   |--- feature_0 >  176.50
|   |   |   |   |--- feature_0 <= 178.50
|   |   |   |   |   |--- feature_1 <= 7.60
|   |   |   |   |   |   |--- class: 0
|   |   |   |   |   |--- feature_1 >  7.60
|   |   |   |   |   |   |--- class: 1
|   |   |   |   |--- feature_0 >  178.50
|   |   |   |   |   |--- feature_1 <= 8.05
|   |   |   |   |   |   |--- feature_1 <= 7.80
|   |   |   |   |   |   |   |--- feature_0 <= 184.50
|   |   |   |   |   |   |   |   |--- class: 0
|   |   |   |   |   |   |   |--- feature_0 >  184.50
|   |   |   |   |   |   |   |   |--- class: 0
|   |   |   |   |   |   |--- feature_1 >  7.80
|   |   |   |   |   |   |   |--- class: 1
|   |   |   |   |   |--- feature_1 >  8.05
|   |   |   |   |   |   |--- class: 0
|   |--- feature_2 >  1.50
|   |   |--- feature_0 <= 116.50
|   |   |   |--- feature_1 <= 2.15
|   |   |   |   |--- feature_1 <= 0.55
|   |   |   |   |   |--- class: 1
|   |   |   |   |--- feature_1 >  0.55
|   |   |   |   |   |--- feature_0 <= 114.50
|   |   |   |   |   |   |--- class: 0
|   |   |   |   |   |--- feature_0 >  114.50
|   |   |   |   |   |   |--- feature_1 <= 1.10
|   |   |   |   |   |   |   |--- class: 0
|   |   |   |   |   |   |--- feature_1 >  1.10
|   |   |   |   |   |   |   |--- feature_1 <= 1.35
|   |   |   |   |   |   |   |   |--- class: 1
|   |   |   |   |   |   |   |--- feature_1 >  1.35
|   |   |   |   |   |   |   |   |--- class: 0
|   |   |   |--- feature_1 >  2.15
|   |   |   |   |--- feature_1 <= 4.00
|   |   |   |   |   |--- feature_1 <= 3.35
|   |   |   |   |   |   |--- feature_1 <= 2.80
|   |   |   |   |   |   |   |--- feature_1 <= 2.30
|   |   |   |   |   |   |   |   |--- class: 1
|   |   |   |   |   |   |   |--- feature_1 >  2.30
|   |   |   |   |   |   |   |   |--- class: 0
|   |   |   |   |   |   |--- feature_1 >  2.80
|   |   |   |   |   |   |   |--- class: 1
|   |   |   |   |   |--- feature_1 >  3.35
|   |   |   |   |   |   |--- feature_1 <= 3.60
|   |   |   |   |   |   |   |--- class: 0
|   |   |   |   |   |   |--- feature_1 >  3.60
|   |   |   |   |   |   |   |--- feature_0 <= 114.50
|   |   |   |   |   |   |   |   |--- class: 0
|   |   |   |   |   |   |   |--- feature_0 >  114.50
|   |   |   |   |   |   |   |   |--- class: 1
|   |   |   |   |--- feature_1 >  4.00
|   |   |   |   |   |--- class: 1
|   |   |--- feature_0 >  116.50
|   |   |   |--- class: 1
